%YAML:1.0
---
opencv_ml_svm:
   format: 3
   svmType: C_SVC
   kernel:
      type: LINEAR
   C: 2.6699999999999999e+00
   term_criteria: { epsilon:1.1920928955078125e-07, iterations:1000 }
   var_count: 32
   class_count: 2
   class_labels: !!opencv-matrix
      rows: 2
      cols: 1
      dt: i
      data: [ 0, 1 ]
   sv_total: 1
   support_vectors:
      - [ -5.01059322e-03, 1.97455334e-03, -1.54855987e-03,
          3.45347845e-03, -5.68351825e-04, 1.40285701e-03,
          7.82487696e-05, -3.23554559e-04, -4.99796995e-04,
          1.39817363e-03, -9.36052646e-04, -5.23256953e-04,
          -2.80149793e-03, 1.85018044e-03, -1.69291787e-04,
          1.16022199e-03, -3.63536458e-03, 2.45433813e-03,
          8.27641785e-03, 2.56792177e-03, -5.39213279e-03,
          4.40252479e-03, -5.95049700e-03, 0., 0., 0., 0., 0., 0., 0.,
          0., 0. ]
   uncompressed_sv_total: 19
   uncompressed_support_vectors:
      - [ 51., 13., 0., 0., 0., 0., 0., 0., 0., 0., 0., 0., 0., 59.,
          367., 1098., 964., 443., 324., 221., 336., 270., 12., 0., 0.,
          0., 0., 0., 0., 0., 0., 0. ]
      - [ 0., 0., 0., 0., 0., 0., 0., 0., 0., 0., 0., 0., 0., 0., 0., 0.,
          0., 0., 159., 3117., 1405., 1., 0., 0., 0., 0., 0., 0., 0., 0.,
          0., 0. ]
      - [ 220., 87., 7., 9., 2., 0., 0., 5., 0., 7., 0., 9., 24., 1019.,
          745., 444., 152., 75., 86., 741., 409., 196., 114., 0., 0., 0.,
          0., 0., 0., 0., 0., 0. ]
      - [ 0., 0., 0., 0., 0., 0., 0., 0., 0., 0., 0., 0., 0., 0., 259.,
          502., 774., 1076., 372., 350., 610., 54., 0., 0., 0., 0., 0.,
          0., 0., 0., 0., 0. ]
      - [ 6., 0., 0., 0., 0., 0., 0., 0., 0., 0., 0., 0., 0., 1., 1., 9.,
          68., 82., 1244., 1006., 2074., 97., 4., 0., 0., 0., 0., 0., 0.,
          0., 0., 0. ]
      - [ 905., 19., 4., 0., 0., 0., 0., 0., 0., 0., 0., 0., 0., 0., 1.,
          41., 346., 516., 461., 418., 340., 1144., 261., 0., 0., 0., 0.,
          0., 0., 0., 0., 0. ]
      - [ 452., 1638., 1167., 12., 0., 0., 0., 2., 0., 0., 0., 0., 1.,
          31., 161., 280., 258., 240., 164., 108., 62., 107., 60., 0.,
          0., 0., 0., 0., 0., 0., 0., 0. ]
      - [ 245., 248., 51., 34., 0., 0., 1., 3., 0., 5., 1., 7., 13.,
          473., 2032., 972., 109., 37., 33., 11., 51., 37., 26., 0., 0.,
          0., 0., 0., 0., 0., 0., 0. ]
      - [ 232., 307., 0., 0., 0., 0., 0., 0., 0., 0., 0., 0., 0., 0.,
          26., 1268., 481., 275., 165., 183., 171., 696., 477., 0., 0.,
          0., 0., 0., 0., 0., 0., 0. ]
      - [ 1292., 3281., 13., 0., 0., 0., 0., 0., 0., 0., 0., 0., 0., 0.,
          0., 0., 0., 1., 0., 0., 2., 37., 102., 0., 0., 0., 0., 0., 0.,
          0., 0., 0. ]
      - [ 12., 10., 8., 5., 13., 26., 30., 43., 23., 35., 20., 40., 74.,
          906., 2469., 350., 62., 26., 41., 33., 42., 7., 0., 0., 0., 0.,
          0., 0., 0., 0., 0., 0. ]
      - [ 269., 473., 578., 448., 317., 189., 61., 29., 12., 21., 18.,
          17., 16., 111., 774., 275., 133., 91., 174., 110., 195., 135.,
          24., 0., 0., 0., 0., 0., 0., 0., 0., 0. ]
      - [ 662., 1718., 843., 260., 48., 20., 8., 9., 4., 11., 8., 13.,
          38., 49., 14., 21., 14., 5., 15., 14., 75., 595., 214., 0., 0.,
          0., 0., 0., 0., 0., 0., 0. ]
      - [ 0., 0., 0., 0., 0., 0., 0., 0., 0., 0., 0., 0., 0., 3., 8.,
          407., 1806., 1155., 697., 360., 258., 81., 0., 0., 0., 0., 0.,
          0., 0., 0., 0., 0. ]
      - [ 828., 3202., 91., 0., 0., 0., 0., 0., 0., 0., 0., 0., 0., 0.,
          0., 0., 0., 0., 0., 0., 14., 198., 243., 0., 0., 0., 0., 0.,
          0., 0., 0., 0. ]
      - [ 0., 0., 0., 0., 0., 0., 0., 0., 0., 0., 0., 0., 0., 3., 91.,
          2577., 1121., 344., 242., 46., 2., 0., 0., 0., 0., 0., 0., 0.,
          0., 0., 0., 0. ]
      - [ 9., 1027., 2266., 593., 251., 184., 63., 39., 12., 21., 9.,
          16., 1., 2., 0., 0., 0., 0., 1., 0., 1., 0., 0., 0., 0., 0.,
          0., 0., 0., 0., 0., 0. ]
      - [ 210., 1., 0., 3., 0., 2., 1., 22., 0., 120., 0., 55., 96.,
          707., 610., 1144., 292., 324., 144., 298., 231., 20., 0., 0.,
          0., 0., 0., 0., 0., 0., 0., 0. ]
      - [ 0., 0., 0., 0., 0., 0., 0., 0., 0., 0., 0., 0., 4., 1310.,
          2205., 764., 98., 20., 14., 3., 3., 2., 0., 0., 0., 0., 0., 0.,
          0., 0., 0., 0. ]
   decision_functions:
      -
         sv_count: 1
         rho: 1.4411007484815019e+00
         alpha: [ 1. ]
         index: [ 0 ]
