%YAML:1.0
---
opencv_ml_svm:
   format: 3
   svmType: C_SVC
   kernel:
      type: LINEAR
   C: 1.
   term_criteria: { epsilon:1.1920928955078125e-07, iterations:1000 }
   var_count: 64
   class_count: 2
   class_labels: !!opencv-matrix
      rows: 2
      cols: 1
      dt: i
      data: [ 0, 1 ]
   sv_total: 1
   support_vectors:
      - [ 5.51542093e-04, 1.51223608e-03, 5.90299023e-04, 8.12382263e-04,
          1.69036142e-03, -5.02430077e-04, 7.45821511e-04,
          4.15177405e-04, 2.84709269e-03, 8.40156921e-04,
          -6.90345652e-04, -6.25177752e-04, -6.89485110e-04,
          -5.34715655e-04, -4.41710203e-04, -3.42427666e-04,
          -5.25573152e-04, -5.19159250e-04, -3.35895660e-04,
          -4.35388240e-04, -2.66749645e-04, -4.11086134e-04,
          -2.47099379e-04, -4.48955485e-04, -2.40442765e-04,
          -2.81464105e-04, -4.37750365e-04, -4.61479300e-04,
          -1.53042289e-04, -2.60442001e-04, -8.52550656e-05,
          -1.02536040e-04, -1.65871193e-03, 3.54578282e-04,
          -8.57378327e-05, 1.16541050e-04, 3.23631160e-04,
          3.43378517e-04, 5.88259973e-05, -6.64908366e-05,
          -8.18513072e-05, 4.21092445e-05, -1.35507493e-04,
          -1.62199969e-04, -1.20474084e-04, 6.57870492e-04,
          -9.06785543e-04, 5.74682432e-04, -6.72601222e-04,
          2.50857905e-04, 4.42828226e-04, 6.04974106e-04,
          -5.02854818e-05, -5.02818730e-05, 1.03957922e-04, 0., 0., 0.,
          0., 0., 0., 0., 0., 0. ]
   uncompressed_sv_total: 14
   uncompressed_support_vectors:
      - [ 33., 431., 645., 433., 270., 304., 320., 297., 268., 190.,
          185., 130., 117., 93., 66., 31., 61., 45., 32., 47., 24., 24.,
          23., 33., 11., 9., 16., 7., 3., 1., 0., 0., 51., 13., 0., 0.,
          0., 0., 0., 0., 0., 0., 0., 0., 0., 59., 367., 1098., 964.,
          443., 324., 221., 336., 270., 12., 0., 0., 0., 0., 0., 0., 0.,
          0., 0. ]
      - [ 3541., 767., 22., 0., 0., 0., 0., 0., 0., 0., 0., 0., 0., 0.,
          0., 0., 0., 0., 0., 0., 0., 0., 0., 0., 0., 0., 0., 0., 0., 0.,
          0., 0., 32., 4., 1., 0., 0., 0., 0., 0., 0., 4., 2., 12., 74.,
          673., 272., 1894., 139., 505., 89., 78., 199., 352., 0., 0.,
          0., 0., 0., 0., 0., 0., 0., 0. ]
      - [ 636., 3214., 464., 136., 6., 0., 0., 0., 0., 0., 0., 0., 0.,
          0., 0., 0., 0., 0., 0., 0., 0., 0., 0., 0., 0., 0., 0., 0., 0.,
          0., 0., 0., 905., 19., 4., 0., 0., 0., 0., 0., 0., 0., 0., 0.,
          0., 0., 1., 41., 346., 516., 461., 418., 340., 1144., 261., 0.,
          0., 0., 0., 0., 0., 0., 0., 0. ]
      - [ 179., 528., 680., 551., 381., 376., 411., 507., 167., 69., 55.,
          40., 37., 31., 24., 27., 34., 38., 24., 30., 19., 31., 17.,
          33., 20., 23., 41., 44., 14., 23., 4., 0., 591., 1581., 752.,
          124., 20., 12., 11., 20., 12., 7., 15., 24., 11., 107., 294.,
          172., 142., 95., 147., 67., 109., 132., 94., 0., 0., 0., 0.,
          0., 0., 0., 0., 0. ]
      - [ 290., 631., 604., 412., 399., 445., 721., 316., 82., 43., 45.,
          33., 36., 39., 46., 14., 38., 24., 21., 39., 24., 37., 20.,
          26., 9., 7., 15., 6., 3., 7., 3., 0., 269., 473., 578., 448.,
          317., 189., 61., 29., 12., 21., 18., 17., 16., 111., 774.,
          275., 133., 91., 174., 110., 195., 135., 24., 0., 0., 0., 0.,
          0., 0., 0., 0., 0. ]
      - [ 75., 134., 318., 500., 398., 354., 377., 485., 468., 369.,
          226., 96., 103., 62., 55., 29., 57., 51., 32., 39., 23., 33.,
          24., 43., 19., 26., 21., 26., 10., 20., 18., 39., 662., 1718.,
          843., 260., 48., 20., 8., 9., 4., 11., 8., 13., 38., 49., 14.,
          21., 14., 5., 15., 14., 75., 595., 214., 0., 0., 0., 0., 0.,
          0., 0., 0., 0. ]
      - [ 0., 25., 265., 732., 556., 436., 701., 894., 770., 137., 40.,
          13., 5., 0., 1., 1., 0., 0., 0., 0., 0., 0., 0., 0., 0., 0.,
          0., 0., 0., 0., 0., 0., 828., 3202., 91., 0., 0., 0., 0., 0.,
          0., 0., 0., 0., 0., 0., 0., 0., 0., 0., 0., 0., 14., 198.,
          243., 0., 0., 0., 0., 0., 0., 0., 0., 0. ]
      - [ 0., 10., 491., 1476., 808., 550., 619., 347., 226., 52., 15.,
          0., 0., 0., 0., 0., 0., 0., 0., 0., 0., 0., 0., 0., 0., 0., 0.,
          0., 0., 0., 0., 0., 196., 2653., 1288., 430., 26., 0., 0., 0.,
          0., 0., 0., 0., 0., 0., 0., 0., 0., 0., 0., 0., 0., 0., 1., 0.,
          0., 0., 0., 0., 0., 0., 0., 0. ]
      - [ 7., 1624., 2135., 719., 1., 0., 0., 0., 0., 0., 0., 0., 0., 0.,
          0., 0., 0., 0., 0., 0., 0., 0., 0., 0., 0., 0., 0., 0., 0., 0.,
          0., 0., 0., 0., 0., 0., 0., 0., 0., 0., 0., 0., 0., 0., 1.,
          254., 1327., 2254., 351., 105., 173., 14., 7., 0., 0., 0., 0.,
          0., 0., 0., 0., 0., 0., 0. ]
      - [ 2., 596., 884., 572., 333., 294., 256., 320., 601., 608., 176.,
          30., 0., 0., 0., 0., 0., 0., 0., 0., 0., 0., 0., 0., 0., 0.,
          0., 0., 0., 0., 0., 0., 810., 2165., 28., 0., 0., 0., 0., 0.,
          0., 0., 0., 0., 0., 0., 0., 0., 17., 92., 371., 244., 363.,
          371., 211., 0., 0., 0., 0., 0., 0., 0., 0., 0. ]
      - [ 25., 129., 398., 485., 425., 508., 862., 763., 555., 307., 37.,
          1., 0., 0., 0., 0., 0., 0., 0., 0., 0., 0., 0., 0., 0., 0., 0.,
          0., 0., 0., 0., 0., 9., 1027., 2266., 593., 251., 184., 63.,
          39., 12., 21., 9., 16., 1., 2., 0., 0., 0., 0., 1., 0., 1., 0.,
          0., 0., 0., 0., 0., 0., 0., 0., 0., 0. ]
      - [ 747., 1567., 1519., 355., 90., 2., 0., 0., 0., 0., 0., 0., 0.,
          0., 0., 0., 0., 0., 0., 0., 0., 0., 0., 0., 0., 0., 0., 0., 0.,
          0., 0., 0., 210., 1., 0., 3., 0., 2., 1., 22., 0., 120., 0.,
          55., 96., 707., 610., 1144., 292., 324., 144., 298., 231., 20.,
          0., 0., 0., 0., 0., 0., 0., 0., 0., 0. ]
      - [ 12., 149., 3160., 1219., 251., 9., 1., 0., 0., 0., 0., 0., 0.,
          0., 0., 0., 0., 0., 0., 0., 0., 0., 0., 0., 0., 0., 0., 0., 0.,
          0., 0., 0., 3., 1., 0., 0., 0., 0., 0., 0., 0., 0., 0., 0., 0.,
          0., 16., 746., 858., 439., 1436., 638., 469., 191., 4., 0., 0.,
          0., 0., 0., 0., 0., 0., 0. ]
      - [ 1., 19., 663., 837., 2531., 372., 0., 0., 0., 0., 0., 0., 0.,
          0., 0., 0., 0., 0., 0., 0., 0., 0., 0., 0., 0., 0., 0., 0., 0.,
          0., 0., 0., 0., 0., 0., 0., 0., 0., 0., 0., 0., 0., 0., 0., 4.,
          1310., 2205., 764., 98., 20., 14., 3., 3., 2., 0., 0., 0., 0.,
          0., 0., 0., 0., 0., 0. ]
   decision_functions:
      -
         sv_count: 1
         rho: 3.4398065278696954e+00
         alpha: [ 1. ]
         index: [ 0 ]
