%YAML:1.0
---
opencv_ml_svm:
   format: 3
   svmType: C_SVC
   kernel:
      type: LINEAR
   C: 2.6699999999999999e+00
   term_criteria: { epsilon:1.1920928955078125e-07, iterations:1000 }
   var_count: 32
   class_count: 2
   class_labels: !!opencv-matrix
      rows: 2
      cols: 1
      dt: i
      data: [ 0, 1 ]
   sv_total: 1
   support_vectors:
      - [ 1.54612435e-03, 1.59748679e-03, 1.46466587e-03, 1.92530674e-03,
          1.73803943e-03, -7.85133510e-04, 1.55691919e-03,
          4.45793237e-04, 4.21682186e-03, 2.11431854e-03,
          -1.36006798e-03, -1.19119848e-03, -1.20476389e-03,
          -9.99164884e-04, -9.19911603e-04, -6.32613315e-04,
          -1.02265109e-03, -9.57157987e-04, -6.49487018e-04,
          -9.08230315e-04, -5.64194343e-04, -8.88892857e-04,
          -5.04454132e-04, -8.67314346e-04, -4.49795247e-04,
          -5.04629628e-04, -8.36539431e-04, -8.30145087e-04,
          -2.78299034e-04, -4.85048309e-04, -1.45678874e-04,
          -1.27278428e-04 ]
   uncompressed_sv_total: 10
   uncompressed_support_vectors:
      - [ 0., 0., 315., 2601., 722., 1., 0., 0., 0., 0., 0., 0., 0., 0.,
          0., 0., 0., 0., 0., 0., 0., 0., 0., 0., 0., 0., 0., 0., 0., 0.,
          0., 0. ]
      - [ 3541., 767., 22., 0., 0., 0., 0., 0., 0., 0., 0., 0., 0., 0.,
          0., 0., 0., 0., 0., 0., 0., 0., 0., 0., 0., 0., 0., 0., 0., 0.,
          0., 0. ]
      - [ 179., 528., 680., 551., 381., 376., 411., 507., 167., 69., 55.,
          40., 37., 31., 24., 27., 34., 38., 24., 30., 19., 31., 17.,
          33., 20., 23., 41., 44., 14., 23., 4., 0. ]
      - [ 290., 631., 604., 412., 399., 445., 721., 316., 82., 43., 45.,
          33., 36., 39., 46., 14., 38., 24., 21., 39., 24., 37., 20.,
          26., 9., 7., 15., 6., 3., 7., 3., 0. ]
      - [ 75., 134., 318., 500., 398., 354., 377., 485., 468., 369.,
          226., 96., 103., 62., 55., 29., 57., 51., 32., 39., 23., 33.,
          24., 43., 19., 26., 21., 26., 10., 20., 18., 39. ]
      - [ 17., 3390., 867., 9., 0., 0., 0., 0., 0., 0., 0., 0., 0., 0.,
          0., 0., 0., 0., 0., 0., 0., 0., 0., 0., 0., 0., 0., 0., 0., 0.,
          0., 0. ]
      - [ 0., 10., 491., 1476., 808., 550., 619., 347., 226., 52., 15.,
          0., 0., 0., 0., 0., 0., 0., 0., 0., 0., 0., 0., 0., 0., 0., 0.,
          0., 0., 0., 0., 0. ]
      - [ 25., 129., 398., 485., 425., 508., 862., 763., 555., 307., 37.,
          1., 0., 0., 0., 0., 0., 0., 0., 0., 0., 0., 0., 0., 0., 0., 0.,
          0., 0., 0., 0., 0. ]
      - [ 747., 1567., 1519., 355., 90., 2., 0., 0., 0., 0., 0., 0., 0.,
          0., 0., 0., 0., 0., 0., 0., 0., 0., 0., 0., 0., 0., 0., 0., 0.,
          0., 0., 0. ]
      - [ 1., 19., 663., 837., 2531., 372., 0., 0., 0., 0., 0., 0., 0.,
          0., 0., 0., 0., 0., 0., 0., 0., 0., 0., 0., 0., 0., 0., 0., 0.,
          0., 0., 0. ]
   decision_functions:
      -
         sv_count: 1
         rho: 5.7226456025978605e+00
         alpha: [ 1. ]
         index: [ 0 ]
