%YAML:1.0
---
opencv_ml_svm:
   format: 3
   svmType: C_SVC
   kernel:
      type: LINEAR
   C: 2.6699999999999999e+00
   term_criteria: { epsilon:1.1920928955078125e-07, iterations:1000 }
   var_count: 32
   class_count: 2
   class_labels: !!opencv-matrix
      rows: 2
      cols: 1
      dt: i
      data: [ 0, 1 ]
   sv_total: 1
   support_vectors:
      - [ 0., 0., 0., 0., 0., 0., 0., 0., 0., 0., 0., 0., 0.,
          -7.00596865e-05, -2.69374833e-03, 1.25232688e-03,
          4.05606860e-03, 1.64605270e-03, -1.82155185e-04, 0., 0., 0.,
          0., 0., 0., 0., 0., 0., 0., 0., 0., 0. ]
   uncompressed_sv_total: 3
   uncompressed_support_vectors:
      - [ 0., 0., 0., 0., 0., 0., 0., 0., 0., 0., 0., 0., 0., 5., 225.,
          1061., 1969., 148., 13., 0., 0., 0., 0., 0., 0., 0., 0., 0.,
          0., 0., 0., 0. ]
      - [ 0., 0., 0., 0., 0., 0., 0., 0., 0., 0., 0., 0., 0., 0., 14.,
          2252., 2012., 4., 0., 0., 0., 0., 0., 0., 0., 0., 0., 0., 0.,
          0., 0., 0. ]
      - [ 0., 0., 0., 0., 0., 0., 0., 0., 0., 0., 0., 0., 0., 0., 49.,
          196., 2472., 492., 0., 0., 0., 0., 0., 0., 0., 0., 0., 0., 0.,
          0., 0., 0. ]
   decision_functions:
      -
         sv_count: 1
         rho: 9.9499219033708766e+00
         alpha: [ 1. ]
         index: [ 0 ]
